svm_type C_SVC
kernel_type RBF
gamma 3.814697265625E-06
nr_class 5
total_sv 74
rho 0.996085115126334 -0.999670779448934 -1.0000278421212 -0.999816394178197 -1.00002262101043 -1.00001791410614 -1.00000852090307 -0.999996574246325 -0.999972049030475 0.999998301733285
label 4 3 2 6 5
probA -628.851129968162 -3003.61489622454 -1190.05425459491 -5204.97020581989 -19868.3749721153 -9181.44470465278 -30938.0055476624 -77683.8652341785 2.01581538958371 -70354.8699506021
probB -627.280161455511 3002.07193520382 1187.36534796346 5203.57298869915 19862.5228609996 9178.02356044714 30935.1412756528 77682.4130542029 -2.07929851696691 -70353.6691132608
nr_sv 26 35 7 1 5
SV
0.00390625 0 0 0 1:30 2:90 3:0 4:0 5:0 6:0 7:0 8:0
0.00390625 0 0 0 1:28 2:84 3:0 4:0 5:0 6:0 7:0 8:0
0.00390625 0 0 0 1:20 2:100 3:0 4:0 5:0 6:0 7:0 8:0
0.00390625 0 0 0 1:15 2:75 3:0 4:0 5:0 6:0 7:0 8:0
0.00390625 0.00390625 0 0 1:20 2:60 3:0 4:0 5:0 6:0 7:0 8:0
0.00390625 0.00390625 0 0.00390625 1:13 2:52 3:0 4:8 5:0 6:0 7:0 8:11
0.00390625 0.00390625 0 0.00390625 1:14 2:56 3:0 4:0 5:0 6:0 7:0 8:2
0.00390625 0 0 0 1:25 2:75 3:0 4:0 5:0 6:0 7:0 8:0
0.00390625 0 0 0 1:30 2:120 3:0 4:0 5:0 6:0 7:0 8:0
0.00390625 0 0 0 1:40 2:200 3:0 4:0 5:0 6:0 7:0 8:0
0.00390625 0 0 0 1:30 2:150 3:0 4:0 5:0 6:0 7:0 8:0
0.00390625 0 0 0 1:20 2:80 3:0 4:0 5:0 6:0 7:0 8:0
0.00390625 0.00390625 0 0.00390625 1:9 2:36 3:0 4:0 5:0 6:0 7:0 8:0
0.00390625 0 0 0 1:50 2:250 3:0 4:0 5:0 6:0 7:0 8:0
0.00390625 0 0 0 1:19 2:76 3:0 4:0 5:0 6:0 7:0 8:0
0.00390625 0.00390625 0 0.00390625 1:12 2:48 3:0 4:0 5:0 6:0 7:0 8:0
0.00390625 0 0 0 1:48 2:240 3:0 4:0 5:0 6:0 7:0 8:0
0.00390625 0 0 0 1:56 2:280 3:0 4:0 5:0 6:0 7:0 8:0
0.00390625 0 0 0 1:39 2:156 3:0 4:0 5:0 6:0 7:0 8:0
0.00390625 0.00390625 0.00369242999388015 0.00390625 1:0 2:0 3:0 4:0 5:0 6:0 7:0 8:0
0.00390625 0 0 0 1:30 2:180 3:0 4:0 5:0 6:0 7:0 8:0
0.00390625 0 0 0 1:45 2:225 3:0 4:0 5:0 6:0 7:0 8:0
0.00390625 0.00390625 0 0 1:15 2:60 3:0 4:0 5:0 6:0 7:0 8:0
0.00390625 0 0 0 1:10 2:60 3:0 4:0 5:0 6:0 7:0 8:0
0.00390625 0 0 0 1:40 2:186 3:0 4:0 5:0 6:0 7:0 8:0
0.00390625 0 0.00021382000611985 0 1:40 2:198 3:0 4:0 5:0 6:0 7:0 8:0
0 0.00390625 0 0 1:31 2:11 3:5 4:12 5:0 6:0 7:0 8:1
0 0.00390625 0 0.00390625 1:31 2:6 3:8 4:9 5:0 6:0 7:0 8:1
-0.00390625 0 0 0 1:25 2:64 3:7 4:3 5:0 6:0 7:0 8:0
-0.00390625 0 0 0 1:25 2:70 3:0 4:1 5:0 6:0 7:0 8:0
0 0 0 0.00390625 1:5 2:0 3:0 4:0 5:0 6:0 7:0 8:0
-0.00390625 0 0 0 1:25 2:44 3:1 4:0 5:0 6:0 7:0 8:0
-0.00390625 0 0 0 1:30 2:61 3:13 4:7 5:0 6:0 7:0 8:0
-0.00390625 0 0 0 1:30 2:64 3:12 4:7 5:0 6:0 7:0 8:2
-0.00390625 0 0 0 1:30 2:52 3:8 4:13 5:0 6:0 7:0 8:0
0 0.00390625 0 0 1:30 2:0 3:0 4:0 5:0 6:0 7:0 8:0
0 0.00390625 0 0 1:30 2:0 3:0 4:2 5:0 6:0 7:0 8:0
-0.00390625 0 0 0 1:20 2:64 3:6 4:14 5:0 6:0 7:0 8:0
-0.00390625 0 0 0 1:20 2:55 3:8 4:12 5:0 6:0 7:0 8:0
-0.00390625 0 0 0 1:20 2:46 3:1 4:17 5:0 6:0 7:0 8:0
-0.00390625 0 0 0 1:20 2:57 3:8 4:16 5:0 6:0 7:0 8:0
-0.00390625 0 0 0 1:19 2:46 3:3 4:1 5:0 6:0 7:0 8:0
-0.00390625 0 0 0 1:12 2:57 3:5 4:5 5:0 6:0 7:0 8:0
-0.00390625 0 0 0 1:19 2:130 3:3 4:1 5:0 6:0 7:0 8:0
-0.00390625 0 0 0 1:19 2:173 3:26 4:14 5:0 6:0 7:0 8:0
-0.00390625 0 0 0 1:19 2:63 3:5 4:9 5:0 6:0 7:0 8:1
-0.00390625 0 0 0 1:9 2:46 3:4 4:5 5:0 6:0 7:0 8:0
-0.00390625 0 0 0 1:19 2:54 3:10 4:0 5:0 6:0 7:0 8:0
-0.00390625 0 0 0 1:19 2:43 3:4 4:21 5:0 6:0 7:0 8:0
0 0.00390625 0 0 1:19 2:29 3:4 4:39 5:0 6:0 7:0 8:0
-0.00390625 0 0 0 1:20 2:45 3:13 4:8 5:5 6:0 7:0 8:0
-0.00390625 0 0 0 1:20 2:162 3:19 4:3 5:0 6:0 7:0 8:0
-0.00390625 0 0 0 1:20 2:79 3:14 4:8 5:0 6:0 7:0 8:3
-0.00390625 0 0 0 1:30 2:66 3:7 4:21 5:0 6:0 7:0 8:0
-0.00390625 0 0 0 1:30 2:100 3:15 4:14 5:0 6:0 7:0 8:0
-0.00390625 0 0 0 1:30 2:61 3:13 4:19 5:0 6:0 7:0 8:0
0 0.00390625 0 0.00390625 1:10 2:0 3:1 4:1 5:0 6:0 7:0 8:0
0 0 0 0.00390625 1:4 2:0 3:2 4:0 5:1 6:0 7:0 8:0
-0.00390625 0 0 0 1:10 2:32 3:2 4:0 5:0 6:0 7:0 8:1
-0.00390625 0 0 0 1:10 2:39 3:2 4:1 5:0 6:0 7:0 8:0
0 0.00390625 0.00390625 0.00390625 1:2 2:2 3:1 4:0 5:0 6:0 7:0 8:0
-0.00390625 -0.00390625 0 0 1:30 2:0 3:0 4:14 5:0 6:0 7:0 8:0
-0.00390625 -0.00390625 0 0 1:30 2:0 3:0 4:17 5:0 6:0 7:0 8:0
-0.00390625 -0.00390625 0 0.00390625 1:20 2:0 3:0 4:11 5:0 6:0 7:0 8:1
-0.00390625 -0.00390625 0 0.00390625 1:20 2:0 3:6 4:12 5:0 6:0 7:0 8:0
-0.00390625 -0.00390625 0 0.00390625 1:20 2:0 3:1 4:5 5:0 6:0 7:0 8:0
-0.00390625 -0.00390625 0 0.00390625 1:20 2:0 3:1 4:12 5:0 6:0 7:0 8:0
-0.00390625 -0.00390625 0.00390625 0.00390625 1:20 2:0 3:0 4:6 5:0 6:0 7:0 8:1
-0.00390625 -0.00390625 -0.00390625 0.00390625 1:10 2:10 3:0 4:0 5:0 6:0 7:0 8:0
-0.00390625 -0.00390625 -0.00390625 0 1:10 2:2 3:10 4:0 5:0 6:0 7:0 8:0
-0.00390625 -0.00390625 -0.00390625 0 1:10 2:1 3:6 4:0 5:0 6:0 7:0 8:0
-0.00390625 -0.00390625 -0.00390625 -0.00390625 1:10 2:0 3:4 4:0 5:0 6:0 7:0 8:0
-0.00390625 -0.00390625 -0.00390625 0 1:10 2:0 3:7 4:0 5:0 6:0 7:0 8:0
-0.00390625 -0.00390625 -0.00390625 0 1:10 2:0 3:6 4:1 5:0 6:0 7:0 8:0
