svm_type C_SVC
kernel_type RBF
gamma 3.0517578125E-05
nr_class 2
total_sv 159
rho -1.00214484799653
label 1 0
probA -1193.17692508337
probB 1191.68946331033
nr_sv 80 79
SV
0.03125 1:0 2:2 3:15 4:15 5:15 6:15 7:15 8:15 9:15 10:15 11:15 12:15 13:15 14:15 15:15 16:15 17:15 18:4 19:15 20:15 21:15 22:15 23:15 24:15 25:15 26:15 27:15 28:15 29:15 30:15 31:15 32:15 33:15 34:15 35:15 36:15 37:15 38:15
0.03125 1:0 2:0 3:15 4:15 5:15 6:15 7:15 8:15 9:15 10:15 11:15 12:15 13:15 14:15 15:15 16:15 17:15 18:4 19:15 20:15 21:15 22:15 23:15 24:15 25:15 26:15 27:15 28:15 29:15 30:15 31:15 32:15 33:15 34:15 35:15 36:15 37:15 38:15
0.03125 1:0 2:0 3:15 4:15 5:15 6:15 7:15 8:15 9:15 10:15 11:15 12:15 13:15 14:15 15:15 16:15 17:15 18:15 19:15 20:4 21:15 22:15 23:15 24:15 25:15 26:15 27:15 28:15 29:15 30:15 31:15 32:15 33:15 34:15 35:15 36:15 37:15 38:15
0.03125 1:0 2:3 3:15 4:15 5:15 6:15 7:15 8:15 9:15 10:15 11:15 12:15 13:15 14:15 15:15 16:15 17:15 18:4 19:15 20:15 21:15 22:15 23:15 24:15 25:15 26:15 27:15 28:15 29:15 30:15 31:15 32:15 33:15 34:15 35:15 36:15 37:15 38:15
0.03125 1:0 2:0 3:15 4:15 5:15 6:15 7:15 8:15 9:15 10:15 11:15 12:15 13:15 14:15 15:15 16:15 17:15 18:3 19:15 20:15 21:15 22:15 23:15 24:15 25:15 26:15 27:15 28:15 29:15 30:15 31:15 32:15 33:15 34:15 35:15 36:15 37:15 38:15
0.03125 1:0 2:6 3:15 4:15 5:15 6:15 7:15 8:15 9:15 10:15 11:15 12:15 13:15 14:15 15:15 16:15 17:15 18:3 19:15 20:15 21:15 22:15 23:15 24:15 25:15 26:15 27:15 28:15 29:15 30:15 31:15 32:15 33:15 34:15 35:15 36:15 37:15 38:15
0.03125 1:0 2:2 3:15 4:15 5:15 6:15 7:15 8:15 9:15 10:15 11:15 12:15 13:15 14:15 15:15 16:15 17:15 18:3 19:15 20:15 21:15 22:15 23:15 24:15 25:15 26:15 27:15 28:15 29:15 30:15 31:15 32:15 33:15 34:15 35:15 36:15 37:15 38:15
0.03125 1:0.625 2:5 3:15 4:15 5:15 6:15 7:15 8:15 9:15 10:15 11:15 12:15 13:15 14:15 15:15 16:15 17:15 18:3 19:15 20:15 21:15 22:15 23:15 24:15 25:15 26:15 27:15 28:15 29:15 30:15 31:15 32:15 33:15 34:15 35:15 36:15 37:15 38:15
0.03125 1:0 2:10 3:15 4:15 5:15 6:15 7:15 8:15 9:15 10:15 11:15 12:15 13:15 14:15 15:15 16:15 17:15 18:10 19:8 20:15 21:15 22:15 23:15 24:15 25:15 26:15 27:15 28:15 29:15 30:15 31:15 32:15 33:15 34:1 35:15 36:15 37:15 38:15
0.03125 1:0 2:0 3:15 4:15 5:15 6:15 7:15 8:15 9:15 10:15 11:15 12:15 13:15 14:15 15:15 16:15 17:15 18:8 19:6 20:15 21:15 22:15 23:15 24:15 25:15 26:15 27:15 28:15 29:15 30:15 31:15 32:15 33:15 34:3 35:15 36:15 37:15 38:15
0.03125 1:0 2:3 3:15 4:15 5:15 6:15 7:15 8:15 9:15 10:15 11:15 12:15 13:15 14:15 15:15 16:15 17:15 18:9 19:7 20:15 21:15 22:15 23:15 24:15 25:15 26:15 27:15 28:15 29:15 30:15 31:15 32:15 33:15 34:2 35:15 36:15 37:15 38:15
0.03125 1:0 2:0 3:15 4:15 5:15 6:15 7:15 8:15 9:15 10:15 11:15 12:15 13:15 14:15 15:15 16:15 17:15 18:8 19:4 20:15 21:15 22:15 23:15 24:15 25:15 26:15 27:15 28:15 29:5 30:15 31:15 32:15 33:15 34:1 35:15 36:15 37:15 38:15
0.03125 1:0 2:10 3:15 4:15 5:15 6:15 7:15 8:15 9:15 10:15 11:15 12:15 13:15 14:15 15:15 16:15 17:15 18:6 19:4 20:15 21:15 22:15 23:15 24:15 25:15 26:15 27:15 28:15 29:15 30:15 31:15 32:15 33:15 34:15 35:15 36:15 37:15 38:15
0.03125 1:0 2:0 3:15 4:15 5:15 6:15 7:15 8:15 9:15 10:15 11:15 12:15 13:15 14:15 15:15 16:15 17:15 18:15 19:5 20:15 21:15 22:15 23:15 24:15 25:15 26:15 27:15 28:15 29:15 30:15 31:15 32:15 33:15 34:3 35:15 36:15 37:15 38:15
0.03125 1:0 2:1 3:15 4:15 5:15 6:15 7:15 8:15 9:15 10:15 11:15 12:15 13:15 14:15 15:15 16:15 17:15 18:15 19:5 20:15 21:15 22:15 23:15 24:15 25:15 26:15 27:15 28:15 29:15 30:15 31:15 32:15 33:15 34:3 35:15 36:15 37:15 38:15
0.03125 1:0 2:0 3:15 4:15 5:15 6:15 7:15 8:15 9:15 10:15 11:15 12:15 13:15 14:15 15:15 16:15 17:15 18:15 19:3 20:15 21:15 22:15 23:15 24:15 25:15 26:15 27:15 28:15 29:15 30:15 31:15 32:15 33:15 34:15 35:15 36:15 37:15 38:15
0.03125 1:0 2:3 3:15 4:15 5:15 6:15 7:15 8:15 9:15 10:15 11:15 12:15 13:15 14:15 15:15 16:15 17:15 18:15 19:8 20:15 21:15 22:15 23:15 24:15 25:15 26:15 27:15 28:15 29:15 30:15 31:15 32:15 33:8 34:4 35:15 36:15 37:15 38:15
0.03125 1:0 2:3 3:15 4:15 5:15 6:15 7:15 8:15 9:15 10:15 11:15 12:15 13:15 14:15 15:15 16:15 17:15 18:15 19:5 20:15 21:15 22:15 23:15 24:15 25:15 26:15 27:15 28:15 29:15 30:15 31:15 32:15 33:15 34:3 35:15 36:15 37:15 38:15
0.03125 1:0 2:0 3:15 4:15 5:15 6:15 7:15 8:15 9:15 10:15 11:15 12:15 13:15 14:15 15:15 16:15 17:15 18:15 19:15 20:15 21:15 22:15 23:15 24:15 25:15 26:15 27:15 28:15 29:15 30:15 31:15 32:15 33:15 34:3 35:15 36:15 37:15 38:15
0.03125 1:0 2:1 3:15 4:15 5:15 6:15 7:15 8:15 9:15 10:15 11:15 12:15 13:15 14:15 15:15 16:15 17:15 18:15 19:15 20:15 21:15 22:15 23:15 24:15 25:15 26:15 27:15 28:15 29:15 30:15 31:15 32:15 33:15 34:3 35:15 36:15 37:15 38:15
0.03125 1:0 2:0 3:15 4:15 5:15 6:15 7:15 8:15 9:15 10:15 11:15 12:15 13:15 14:15 15:15 16:15 17:15 18:15 19:15 20:15 21:15 22:15 23:15 24:15 25:15 26:15 27:15 28:15 29:15 30:2 31:15 32:15 33:15 34:2 35:15 36:15 37:15 38:15
0.03125 1:10 2:0 3:15 4:15 5:15 6:15 7:15 8:15 9:15 10:15 11:15 12:15 13:15 14:15 15:15 16:15 17:15 18:15 19:15 20:15 21:15 22:15 23:15 24:15 25:15 26:15 27:15 28:15 29:15 30:15 31:15 32:15 33:15 34:15 35:15 36:15 37:15 38:15
0.03125 1:0 2:0 3:15 4:15 5:15 6:15 7:15 8:15 9:15 10:15 11:15 12:15 13:15 14:15 15:15 16:15 17:15 18:4 19:9 20:15 21:15 22:15 23:15 24:15 25:15 26:15 27:15 28:15 29:15 30:15 31:15 32:15 33:15 34:15 35:15 36:15 37:15 38:15
0.03125 1:10 2:10 3:15 4:15 5:15 6:15 7:15 8:15 9:15 10:15 11:15 12:15 13:15 14:15 15:15 16:15 17:15 18:15 19:9 20:15 21:15 22:15 23:15 24:15 25:15 26:15 27:15 28:15 29:15 30:15 31:15 32:15 33:15 34:4 35:15 36:15 37:15 38:15
0.03125 1:5 2:5 3:15 4:15 5:15 6:15 7:15 8:15 9:15 10:15 11:15 12:15 13:15 14:15 15:15 16:15 17:15 18:15 19:9 20:15 21:15 22:15 23:15 24:15 25:15 26:15 27:15 28:15 29:15 30:15 31:15 32:15 33:15 34:4 35:15 36:15 37:15 38:15
0.03125 1:0 2:0 3:15 4:15 5:15 6:15 7:15 8:15 9:15 10:15 11:15 12:15 13:15 14:15 15:15 16:15 17:15 18:15 19:8 20:15 21:15 22:15 23:15 24:15 25:15 26:15 27:15 28:15 29:15 30:15 31:15 32:15 33:15 34:4 35:15 36:15 37:15 38:15
0.03125 1:0 2:1 3:15 4:15 5:15 6:15 7:15 8:15 9:15 10:15 11:15 12:15 13:15 14:15 15:15 16:15 17:15 18:15 19:8 20:15 21:15 22:15 23:15 24:15 25:15 26:15 27:15 28:15 29:15 30:15 31:15 32:15 33:15 34:4 35:15 36:15 37:15 38:15
0.03125 1:0 2:3 3:15 4:15 5:15 6:15 7:15 8:15 9:15 10:15 11:15 12:15 13:15 14:15 15:15 16:15 17:15 18:15 19:8 20:15 21:15 22:15 23:15 24:15 25:15 26:15 27:15 28:15 29:15 30:15 31:15 32:15 33:15 34:4 35:15 36:15 37:15 38:15
0.03125 1:0 2:0 3:15 4:15 5:15 6:15 7:15 8:15 9:15 10:15 11:15 12:15 13:15 14:15 15:15 16:15 17:15 18:15 19:5 20:15 21:15 22:15 23:2 24:15 25:15 26:15 27:15 28:15 29:15 30:15 31:15 32:15 33:15 34:2 35:15 36:15 37:15 38:15
0.03125 1:0 2:0 3:15 4:15 5:15 6:15 7:15 8:15 9:15 10:15 11:15 12:15 13:15 14:15 15:15 16:15 17:15 18:15 19:15 20:15 21:15 22:15 23:15 24:15 25:15 26:15 27:15 28:15 29:15 30:15 31:15 32:15 33:5 34:15 35:15 36:15 37:15 38:15
0.03125 1:0 2:0 3:15 4:15 5:15 6:15 7:15 8:15 9:15 10:15 11:15 12:15 13:15 14:15 15:15 16:15 17:15 18:15 19:15 20:15 21:15 22:15 23:15 24:15 25:15 26:15 27:15 28:15 29:15 30:15 31:15 32:15 33:6 34:3 35:15 36:15 37:15 38:15
0.0263885400592806 1:0 2:7 3:15 4:15 5:15 6:15 7:15 8:15 9:15 10:15 11:15 12:15 13:15 14:15 15:15 16:15 17:15 18:15 19:3 20:4 21:15 22:15 23:15 24:15 25:15 26:15 27:15 28:15 29:15 30:15 31:15 32:15 33:15 34:3 35:15 36:15 37:15 38:15
0.03125 1:0 2:0 3:15 4:15 5:15 6:15 7:15 8:15 9:15 10:15 11:15 12:15 13:15 14:15 15:15 16:15 17:15 18:15 19:3 20:15 21:15 22:15 23:15 24:15 25:15 26:15 27:15 28:15 29:15 30:15 31:15 32:15 33:8 34:15 35:15 36:15 37:15 38:15
0.03125 1:0 2:0 3:15 4:15 5:15 6:15 7:15 8:15 9:15 10:15 11:15 12:15 13:15 14:15 15:15 16:15 17:15 18:3 19:9 20:15 21:15 22:15 23:15 24:15 25:15 26:15 27:15 28:15 29:15 30:15 31:15 32:15 33:15 34:5 35:15 36:15 37:15 38:15
0.03125 1:0 2:6 3:15 4:15 5:15 6:15 7:15 8:15 9:15 10:15 11:15 12:15 13:15 14:15 15:15 16:15 17:15 18:15 19:5 20:15 21:15 22:15 23:15 24:15 25:15 26:15 27:15 28:15 29:15 30:15 31:15 32:15 33:15 34:4 35:15 36:15 37:15 38:15
0.03125 1:0.588235294117647 2:1 3:15 4:15 5:15 6:15 7:15 8:15 9:15 10:15 11:15 12:15 13:15 14:15 15:15 16:15 17:15 18:15 19:8 20:15 21:15 22:15 23:15 24:15 25:15 26:15 27:15 28:15 29:15 30:15 31:15 32:15 33:15 34:4 35:15 36:15 37:15 38:15
0.03125 1:0 2:5 3:15 4:15 5:15 6:15 7:15 8:15 9:15 10:15 11:15 12:15 13:15 14:15 15:15 16:15 17:15 18:15 19:5 20:15 21:15 22:15 23:15 24:15 25:15 26:15 27:15 28:15 29:15 30:15 31:15 32:15 33:15 34:4 35:15 36:15 37:15 38:15
0.03125 1:0 2:6 3:15 4:15 5:15 6:15 7:15 8:15 9:15 10:15 11:15 12:15 13:15 14:15 15:15 16:15 17:15 18:15 19:15 20:15 21:15 22:15 23:15 24:15 25:15 26:15 27:15 28:15 29:15 30:15 31:15 32:15 33:4 34:4 35:15 36:15 37:15 38:15
0.03125 1:0 2:10 3:15 4:15 5:15 6:15 7:15 8:15 9:15 10:15 11:15 12:15 13:15 14:15 15:15 16:15 17:15 18:15 19:15 20:15 21:15 22:15 23:15 24:15 25:15 26:15 27:15 28:15 29:15 30:15 31:15 32:15 33:4 34:4 35:15 36:15 37:15 38:15
0.03125 1:0 2:5 3:15 4:15 5:15 6:15 7:15 8:15 9:15 10:15 11:15 12:15 13:15 14:15 15:15 16:15 17:15 18:15 19:15 20:15 21:15 22:15 23:15 24:15 25:15 26:15 27:15 28:15 29:15 30:15 31:15 32:15 33:4 34:4 35:15 36:15 37:15 38:15
0.03125 1:0 2:3 3:15 4:15 5:15 6:15 7:15 8:15 9:15 10:15 11:15 12:15 13:15 14:15 15:15 16:15 17:15 18:15 19:15 20:15 21:15 22:15 23:15 24:15 25:15 26:15 27:15 28:15 29:15 30:15 31:15 32:15 33:4 34:4 35:15 36:15 37:15 38:15
0.03125 1:0 2:0 3:15 4:15 5:15 6:15 7:15 8:15 9:15 10:15 11:15 12:15 13:15 14:15 15:15 16:15 17:15 18:15 19:15 20:15 21:15 22:15 23:15 24:15 25:15 26:15 27:15 28:15 29:15 30:15 31:15 32:15 33:4 34:4 35:15 36:15 37:15 38:15
0.03125 1:0 2:10 3:15 4:15 5:15 6:15 7:15 8:15 9:15 10:15 11:15 12:15 13:15 14:15 15:15 16:15 17:15 18:15 19:15 20:15 21:5 22:15 23:15 24:15 25:15 26:15 27:15 28:15 29:15 30:15 31:15 32:15 33:2 34:15 35:15 36:15 37:15 38:15
0.03125 1:0 2:7 3:15 4:15 5:15 6:15 7:15 8:15 9:15 10:15 11:15 12:15 13:15 14:15 15:15 16:15 17:15 18:15 19:5 20:15 21:15 22:15 23:15 24:15 25:15 26:15 27:15 28:15 29:15 30:15 31:15 32:15 33:15 34:4 35:15 36:15 37:15 38:15
0.03125 1:0 2:4 3:15 4:15 5:15 6:15 7:15 8:15 9:6 10:15 11:15 12:15 13:15 14:15 15:15 16:15 17:15 18:15 19:8 20:15 21:15 22:15 23:15 24:15 25:15 26:15 27:15 28:15 29:15 30:15 31:15 32:15 33:15 34:6 35:15 36:15 37:15 38:15
0.03125 1:0 2:0 3:15 4:15 5:15 6:15 7:15 8:15 9:6 10:15 11:15 12:15 13:15 14:15 15:15 16:15 17:15 18:15 19:9 20:15 21:15 22:15 23:15 24:15 25:15 26:15 27:15 28:15 29:15 30:15 31:15 32:15 33:15 34:6 35:15 36:15 37:15 38:15
0.03125 1:0 2:0 3:15 4:15 5:15 6:15 7:15 8:15 9:15 10:15 11:15 12:15 13:15 14:15 15:15 16:15 17:15 18:15 19:9 20:15 21:15 22:15 23:15 24:15 25:15 26:15 27:15 28:15 29:15 30:15 31:15 32:15 33:15 34:5 35:15 36:15 37:15 38:15
0.03125 1:0 2:2 3:15 4:15 5:15 6:15 7:15 8:15 9:15 10:15 11:15 12:15 13:15 14:15 15:15 16:15 17:15 18:15 19:7 20:15 21:15 22:15 23:15 24:15 25:15 26:15 27:15 28:15 29:15 30:15 31:15 32:15 33:15 34:4 35:15 36:15 37:15 38:15
0.03125 1:0 2:0 3:15 4:15 5:15 6:15 7:15 8:15 9:15 10:15 11:15 12:15 13:15 14:15 15:15 16:15 17:15 18:15 19:7 20:15 21:15 22:15 23:15 24:15 25:15 26:15 27:15 28:15 29:15 30:6 31:15 32:15 33:15 34:4 35:15 36:15 37:15 38:15
0.03125 1:0 2:6 3:15 4:15 5:15 6:15 7:15 8:15 9:4 10:15 11:15 12:15 13:15 14:15 15:15 16:15 17:15 18:15 19:6 20:15 21:15 22:15 23:15 24:15 25:15 26:15 27:15 28:15 29:15 30:15 31:15 32:15 33:15 34:4 35:15 36:15 37:15 38:15
0.03125 1:0 2:0 3:15 4:15 5:15 6:15 7:15 8:15 9:15 10:15 11:15 12:15 13:15 14:15 15:15 16:15 17:15 18:15 19:4 20:15 21:15 22:15 23:15 24:15 25:15 26:15 27:15 28:15 29:15 30:3 31:15 32:15 33:15 34:15 35:15 36:15 37:15 38:15
0.03125 1:0 2:2 3:15 4:15 5:15 6:15 7:15 8:15 9:6 10:15 11:15 12:15 13:15 14:15 15:15 16:15 17:15 18:15 19:8 20:15 21:15 22:15 23:15 24:15 25:15 26:15 27:15 28:15 29:15 30:15 31:15 32:15 33:15 34:6 35:15 36:15 37:15 38:15
0.03125 1:0 2:0 3:15 4:15 5:15 6:15 7:15 8:15 9:6 10:15 11:15 12:15 13:15 14:15 15:15 16:15 17:15 18:15 19:8 20:15 21:15 22:15 23:15 24:15 25:15 26:15 27:15 28:15 29:15 30:15 31:15 32:15 33:15 34:6 35:15 36:15 37:15 38:15
0.03125 1:0 2:5 3:15 4:15 5:15 6:15 7:15 8:15 9:4 10:15 11:15 12:15 13:15 14:15 15:15 16:15 17:15 18:15 19:6 20:15 21:15 22:15 23:15 24:15 25:15 26:15 27:15 28:15 29:15 30:15 31:15 32:15 33:15 34:4 35:15 36:15 37:15 38:15
0.03125 1:0 2:1 3:15 4:15 5:15 6:15 7:15 8:15 9:6 10:15 11:15 12:15 13:15 14:15 15:15 16:15 17:15 18:15 19:8 20:15 21:15 22:15 23:15 24:15 25:15 26:15 27:15 28:15 29:15 30:15 31:15 32:15 33:15 34:6 35:15 36:15 37:15 38:15
0.03125 1:0 2:6 3:15 4:15 5:15 6:15 7:15 8:15 9:4 10:15 11:15 12:15 13:15 14:15 15:15 16:15 17:15 18:15 19:15 20:15 21:15 22:15 23:15 24:15 25:15 26:15 27:15 28:15 29:15 30:15 31:15 32:15 33:5 34:4 35:15 36:15 37:15 38:15
0.03125 1:0.769230769230769 2:1 3:15 4:15 5:15 6:15 7:15 8:15 9:6 10:15 11:15 12:15 13:15 14:15 15:15 16:15 17:15 18:15 19:15 20:15 21:15 22:15 23:15 24:15 25:15 26:15 27:15 28:15 29:15 30:15 31:15 32:15 33:7 34:6 35:15 36:15 37:15 38:15
0.03125 1:0 2:1 3:15 4:15 5:15 6:15 7:15 8:15 9:6 10:15 11:15 12:15 13:15 14:15 15:15 16:15 17:15 18:15 19:15 20:15 21:15 22:15 23:15 24:15 25:15 26:15 27:15 28:15 29:15 30:15 31:15 32:15 33:7 34:6 35:15 36:15 37:15 38:15
0.03125 1:0 2:7 3:15 4:15 5:15 6:15 7:15 8:15 9:15 10:15 11:15 12:15 13:15 14:15 15:15 16:15 17:15 18:15 19:6 20:15 21:15 22:15 23:15 24:15 25:15 26:15 27:15 28:15 29:15 30:15 31:15 32:15 33:15 34:4 35:15 36:15 37:15 38:15
0.03125 1:0 2:7 3:15 4:15 5:15 6:15 7:15 8:15 9:15 10:15 11:15 12:15 13:15 14:15 15:15 16:15 17:15 18:15 19:6 20:15 21:15 22:15 23:15 24:15 25:15 26:15 27:15 28:15 29:15 30:15 31:15 32:15 33:6 34:4 35:15 36:15 37:15 38:15
0.03125 1:0 2:6 3:15 4:15 5:15 6:15 7:15 8:15 9:15 10:15 11:15 12:15 13:15 14:15 15:15 16:15 17:15 18:15 19:6 20:15 21:15 22:15 23:15 24:15 25:15 26:15 27:15 28:15 29:15 30:15 31:15 32:15 33:6 34:4 35:15 36:15 37:15 38:15
0.03125 1:0 2:7 3:15 4:15 5:15 6:15 7:15 8:15 9:15 10:15 11:15 12:15 13:15 14:15 15:15 16:15 17:15 18:4 19:15 20:15 21:15 22:15 23:15 24:15 25:15 26:15 27:15 28:15 29:15 30:5 31:15 32:15 33:15 34:3 35:15 36:15 37:15 38:5
0.03125 1:0 2:0 3:15 4:15 5:15 6:15 7:15 8:15 9:15 10:15 11:15 12:15 13:15 14:15 15:15 16:15 17:15 18:5 19:15 20:15 21:15 22:15 23:15 24:15 25:15 26:15 27:15 28:15 29:15 30:15 31:15 32:15 33:15 34:4 35:15 36:15 37:15 38:15
0.03125 1:0 2:10 3:15 4:15 5:15 6:15 7:15 8:15 9:15 10:15 11:15 12:15 13:15 14:15 15:15 16:15 17:15 18:15 19:15 20:15 21:15 22:15 23:15 24:15 25:15 26:15 27:15 28:15 29:15 30:15 31:15 32:15 33:9 34:7 35:15 36:15 37:15 38:15
0.03125 1:0 2:7 3:15 4:15 5:15 6:15 7:15 8:15 9:15 10:15 11:15 12:15 13:15 14:15 15:15 16:15 17:15 18:15 19:15 20:15 21:15 22:15 23:15 24:15 25:15 26:15 27:15 28:15 29:15 30:15 31:15 32:15 33:3 34:15 35:15 36:15 37:15 38:15
0.03125 1:0.333333333333333 2:2 3:15 4:15 5:15 6:15 7:15 8:15 9:15 10:15 11:15 12:15 13:15 14:15 15:15 16:15 17:15 18:2 19:5 20:15 21:15 22:15 23:15 24:15 25:15 26:15 27:15 28:15 29:15 30:15 31:15 32:15 33:15 34:4 35:15 36:15 37:15 38:15
0.03125 1:0 2:0 3:15 4:15 5:15 6:15 7:15 8:15 9:15 10:15 11:15 12:15 13:2 14:15 15:15 16:15 17:15 18:4 19:7 20:15 21:15 22:15 23:15 24:15 25:15 26:15 27:15 28:15 29:15 30:15 31:15 32:15 33:15 34:6 35:15 36:15 37:15 38:15
0.03125 1:0 2:0 3:15 4:15 5:15 6:15 7:15 8:15 9:15 10:15 11:15 12:15 13:15 14:15 15:15 16:15 17:15 18:5 19:3 20:15 21:15 22:15 23:15 24:15 25:15 26:15 27:15 28:15 29:15 30:15 31:15 32:15 33:15 34:15 35:15 36:15 37:15 38:15
0.00486145994071939 1:0 2:0 3:15 4:15 5:15 6:15 7:15 8:15 9:15 10:15 11:15 12:15 13:15 14:15 15:4 16:15 17:15 18:2 19:15 20:6 21:15 22:6 23:15 24:6 25:15 26:15 27:15 28:15 29:15 30:15 31:15 32:15 33:15 34:15 35:15 36:15 37:15 38:15
0.03125 1:0 2:3 3:15 4:15 5:15 6:15 7:15 8:15 9:15 10:15 11:15 12:15 13:15 14:15 15:15 16:15 17:15 18:2 19:5 20:15 21:15 22:15 23:15 24:15 25:15 26:15 27:15 28:15 29:15 30:15 31:15 32:15 33:15 34:4 35:15 36:15 37:15 38:15
0.03125 1:0 2:0 3:15 4:15 5:15 6:15 7:15 8:15 9:15 10:15 11:15 12:15 13:15 14:15 15:15 16:15 17:15 18:15 19:15 20:15 21:15 22:15 23:15 24:15 25:15 26:15 27:15 28:15 29:15 30:15 31:15 32:15 33:4 34:15 35:15 36:15 37:15 38:15
0.03125 1:0 2:1 3:15 4:15 5:15 6:15 7:15 8:15 9:15 10:15 11:15 12:15 13:15 14:15 15:15 16:15 17:15 18:15 19:15 20:15 21:15 22:15 23:15 24:15 25:15 26:15 27:15 28:15 29:15 30:15 31:15 32:15 33:5 34:3 35:15 36:15 37:15 38:15
0.03125 1:0 2:7 3:15 4:15 5:15 6:15 7:15 8:15 9:15 10:15 11:15 12:15 13:15 14:15 15:15 16:15 17:15 18:15 19:15 20:15 21:15 22:15 23:15 24:15 25:15 26:15 27:15 28:15 29:15 30:15 31:15 32:15 33:4 34:3 35:15 36:15 37:15 38:15
0.03125 1:0 2:0 3:15 4:15 5:15 6:15 7:15 8:15 9:15 10:15 11:15 12:15 13:15 14:15 15:15 16:15 17:15 18:15 19:15 20:15 21:15 22:15 23:15 24:15 25:15 26:15 27:15 28:15 29:15 30:15 31:15 32:15 33:5 34:4 35:15 36:15 37:15 38:15
0.03125 1:0 2:2 3:15 4:15 5:15 6:15 7:15 8:15 9:15 10:15 11:15 12:15 13:15 14:15 15:15 16:15 17:15 18:15 19:15 20:15 21:15 22:15 23:15 24:15 25:15 26:15 27:15 28:15 29:15 30:15 31:15 32:15 33:5 34:3 35:15 36:15 37:15 38:15
0.03125 1:0 2:0 3:15 4:15 5:15 6:15 7:15 8:15 9:15 10:15 11:15 12:15 13:15 14:15 15:15 16:15 17:15 18:15 19:15 20:15 21:15 22:15 23:15 24:15 25:15 26:15 27:15 28:15 29:15 30:15 31:15 32:15 33:3 34:15 35:15 36:15 37:15 38:15
0.03125 1:10 2:0 3:15 4:15 5:15 6:15 7:15 8:15 9:15 10:15 11:15 12:15 13:15 14:15 15:15 16:15 17:15 18:15 19:8 20:15 21:15 22:15 23:15 24:15 25:15 26:15 27:15 28:15 29:15 30:7 31:15 32:15 33:8 34:15 35:15 36:15 37:15 38:15
0.03125 1:0 2:0 3:15 4:15 5:15 6:15 7:15 8:15 9:15 10:15 11:15 12:15 13:15 14:15 15:15 16:15 17:15 18:15 19:8 20:15 21:15 22:15 23:15 24:15 25:15 26:15 27:15 28:15 29:15 30:7 31:15 32:15 33:8 34:15 35:15 36:15 37:15 38:15
0.03125 1:0 2:7 3:15 4:15 5:15 6:15 7:15 8:15 9:15 10:15 11:15 12:15 13:15 14:15 15:15 16:15 17:15 18:6 19:7 20:15 21:15 22:15 23:15 24:15 25:15 26:15 27:15 28:15 29:15 30:15 31:15 32:15 33:15 34:15 35:15 36:15 37:15 38:15
0.03125 1:0 2:0 3:15 4:15 5:15 6:15 7:15 8:15 9:15 10:15 11:15 12:15 13:15 14:15 15:15 16:15 17:15 18:6 19:11 20:15 21:15 22:15 23:15 24:15 25:15 26:15 27:15 28:15 29:15 30:3 31:15 32:15 33:15 34:6 35:15 36:15 37:15 38:15
-0.03125 1:0 2:0 3:15 4:15 5:15 6:15 7:15 8:15 9:15 10:15 11:15 12:15 13:15 14:15 15:15 16:15 17:15 18:4 19:15 20:2 21:15 22:15 23:15 24:15 25:15 26:15 27:15 28:15 29:15 30:15 31:15 32:15 33:15 34:15 35:15 36:15 37:15 38:15
-0.03125 1:0 2:4 3:15 4:15 5:15 6:15 7:15 8:15 9:15 10:15 11:15 12:15 13:15 14:15 15:15 16:15 17:15 18:3 19:15 20:15 21:15 22:15 23:15 24:15 25:15 26:15 27:15 28:15 29:15 30:15 31:15 32:15 33:15 34:15 35:15 36:15 37:15 38:15
-0.03125 1:0 2:3 3:15 4:15 5:15 6:15 7:15 8:15 9:15 10:15 11:15 12:15 13:15 14:15 15:15 16:15 17:15 18:3 19:15 20:15 21:15 22:15 23:15 24:15 25:15 26:15 27:15 28:15 29:15 30:15 31:15 32:15 33:15 34:15 35:15 36:15 37:15 38:15
-0.03125 1:0 2:6 3:15 4:15 5:15 6:15 7:15 8:15 9:15 10:15 11:15 12:15 13:15 14:15 15:15 16:15 17:15 18:3 19:15 20:15 21:15 22:15 23:15 24:15 25:15 26:15 27:15 28:15 29:15 30:15 31:15 32:15 33:15 34:15 35:15 36:15 37:15 38:15
-0.03125 1:0.5 2:5 3:15 4:15 5:15 6:15 7:15 8:15 9:15 10:15 11:15 12:15 13:15 14:15 15:15 16:15 17:15 18:3 19:15 20:15 21:15 22:15 23:15 24:15 25:15 26:15 27:15 28:15 29:15 30:15 31:15 32:15 33:15 34:15 35:15 36:15 37:15 38:15
-0.03125 1:0 2:0 3:15 4:15 5:15 6:15 7:15 8:15 9:15 10:15 11:15 12:15 13:15 14:15 15:15 16:15 17:15 18:3 19:15 20:15 21:15 22:15 23:15 24:15 25:15 26:15 27:15 28:15 29:15 30:15 31:15 32:15 33:15 34:15 35:15 36:15 37:15 38:15
-0.03125 1:0 2:2 3:15 4:15 5:15 6:15 7:15 8:15 9:15 10:15 11:15 12:15 13:15 14:15 15:15 16:15 17:15 18:3 19:15 20:15 21:15 22:15 23:15 24:15 25:15 26:15 27:15 28:15 29:15 30:15 31:15 32:15 33:15 34:15 35:15 36:15 37:15 38:15
-0.03125 1:0 2:1 3:15 4:15 5:15 6:15 7:15 8:15 9:15 10:15 11:15 12:15 13:15 14:15 15:15 16:15 17:15 18:3 19:15 20:15 21:15 22:15 23:15 24:15 25:15 26:15 27:15 28:15 29:15 30:15 31:15 32:15 33:15 34:15 35:15 36:15 37:15 38:15
-0.03125 1:0 2:3 3:15 4:15 5:15 6:15 7:15 8:15 9:15 10:15 11:15 12:15 13:15 14:15 15:15 16:15 17:15 18:9 19:7 20:15 21:15 22:15 23:15 24:15 25:15 26:15 27:15 28:15 29:15 30:15 31:15 32:15 33:15 34:2 35:15 36:15 37:15 38:15
-0.03125 1:0 2:1 3:15 4:15 5:15 6:15 7:15 8:15 9:15 10:15 11:15 12:15 13:15 14:15 15:15 16:15 17:15 18:7 19:5 20:15 21:15 22:15 23:15 24:15 25:15 26:15 27:15 28:15 29:15 30:15 31:15 32:15 33:15 34:4 35:15 36:15 37:15 38:15
-0.03125 1:0 2:2 3:15 4:15 5:15 6:15 7:15 8:15 9:15 10:15 11:15 12:15 13:15 14:15 15:15 16:15 17:15 18:7 19:5 20:15 21:15 22:15 23:15 24:15 25:15 26:15 27:15 28:15 29:15 30:15 31:15 32:15 33:15 34:4 35:15 36:15 37:15 38:15
-0.03125 1:0 2:1 3:15 4:15 5:15 6:15 7:15 8:15 9:15 10:15 11:15 12:15 13:15 14:15 15:15 16:15 17:15 18:15 19:8 20:15 21:15 22:15 23:15 24:15 25:15 26:15 27:15 28:15 29:15 30:15 31:15 32:15 33:8 34:4 35:15 36:15 37:15 38:15
-0.03125 1:6.42857142857143 2:6 3:15 4:15 5:15 6:15 7:15 8:15 9:15 10:15 11:15 12:15 13:15 14:15 15:15 16:15 17:15 18:15 19:8 20:15 21:15 22:15 23:15 24:15 25:15 26:15 27:15 28:15 29:15 30:15 31:15 32:15 33:8 34:4 35:15 36:15 37:15 38:15
-0.03125 1:0.4 2:2 3:15 4:15 5:15 6:15 7:15 8:15 9:15 10:15 11:15 12:15 13:15 14:15 15:15 16:15 17:15 18:15 19:15 20:15 21:15 22:15 23:15 24:15 25:15 26:15 27:15 28:15 29:15 30:15 31:15 32:15 33:15 34:5 35:15 36:15 37:15 38:15
-0.03125 1:0.4 2:5 3:15 4:15 5:15 6:15 7:15 8:15 9:15 10:15 11:15 12:15 13:15 14:15 15:15 16:15 17:15 18:15 19:15 20:15 21:15 22:15 23:15 24:15 25:15 26:15 27:15 28:15 29:15 30:15 31:15 32:15 33:15 34:5 35:15 36:15 37:15 38:15
-0.03125 1:0.666666666666667 2:2 3:15 4:15 5:15 6:15 7:15 8:15 9:15 10:15 11:15 12:15 13:15 14:15 15:15 16:15 17:15 18:15 19:8 20:15 21:15 22:15 23:15 24:15 25:15 26:15 27:15 28:15 29:15 30:15 31:15 32:15 33:15 34:4 35:15 36:15 37:15 38:15
-0.03125 1:0 2:2 3:15 4:15 5:15 6:15 7:15 8:15 9:15 10:15 11:15 12:15 13:15 14:15 15:15 16:15 17:15 18:15 19:8 20:15 21:15 22:15 23:15 24:15 25:15 26:15 27:15 28:15 29:15 30:15 31:15 32:15 33:15 34:4 35:15 36:15 37:15 38:15
-0.03125 1:0.5 2:1 3:15 4:15 5:15 6:15 7:15 8:15 9:15 10:15 11:15 12:15 13:15 14:15 15:15 16:15 17:15 18:15 19:15 20:15 21:15 22:15 23:15 24:15 25:15 26:15 27:15 28:15 29:15 30:15 31:15 32:15 33:15 34:4 35:15 36:15 37:15 38:15
-0.03125 1:0 2:1 3:15 4:15 5:15 6:15 7:15 8:15 9:15 10:15 11:15 12:15 13:15 14:15 15:15 16:15 17:15 18:15 19:5 20:6 21:15 22:15 23:15 24:15 25:15 26:15 27:15 28:15 29:15 30:15 31:15 32:15 33:15 34:4 35:15 36:15 37:15 38:15
-0.03125 1:2.33333333333333 2:4 3:15 4:15 5:15 6:15 7:15 8:15 9:15 10:15 11:15 12:15 13:15 14:15 15:15 16:15 17:15 18:15 19:5 20:6 21:15 22:15 23:15 24:15 25:15 26:15 27:15 28:15 29:15 30:15 31:15 32:15 33:15 34:4 35:15 36:15 37:15 38:15
-0.03125 1:7 2:8 3:15 4:15 5:15 6:15 7:15 8:15 9:15 10:15 11:15 12:15 13:15 14:15 15:15 16:15 17:15 18:15 19:8 20:15 21:15 22:15 23:15 24:15 25:15 26:15 27:15 28:15 29:15 30:15 31:15 32:15 33:15 34:4 35:15 36:15 37:15 38:15
-0.03125 1:2 2:6 3:15 4:15 5:15 6:15 7:15 8:15 9:15 10:15 11:15 12:15 13:15 14:15 15:15 16:15 17:15 18:15 19:8 20:15 21:15 22:15 23:15 24:15 25:15 26:15 27:15 28:15 29:15 30:15 31:15 32:15 33:15 34:4 35:15 36:15 37:15 38:15
-0.03125 1:0 2:0 3:15 4:15 5:15 6:15 7:15 8:15 9:15 10:15 11:15 12:15 13:15 14:15 15:15 16:15 17:15 18:15 19:8 20:15 21:15 22:15 23:15 24:15 25:15 26:15 27:15 28:15 29:15 30:15 31:15 32:15 33:15 34:4 35:15 36:15 37:15 38:15
-0.03125 1:0.5 2:1 3:15 4:15 5:15 6:15 7:15 8:15 9:15 10:15 11:15 12:15 13:15 14:15 15:15 16:15 17:15 18:15 19:8 20:15 21:15 22:15 23:15 24:15 25:15 26:15 27:15 28:15 29:15 30:15 31:15 32:15 33:15 34:4 35:15 36:15 37:15 38:15
-0.03125 1:0 2:3 3:15 4:15 5:15 6:15 7:15 8:15 9:15 10:15 11:15 12:15 13:15 14:15 15:15 16:15 17:15 18:15 19:8 20:15 21:15 22:15 23:15 24:15 25:15 26:15 27:15 28:15 29:15 30:15 31:15 32:15 33:15 34:4 35:15 36:15 37:15 38:15
-0.03125 1:0.4 2:5 3:15 4:15 5:15 6:15 7:15 8:15 9:15 10:15 11:15 12:15 13:15 14:15 15:15 16:15 17:15 18:15 19:15 20:15 21:15 22:15 23:15 24:15 25:15 26:15 27:15 28:15 29:15 30:15 31:15 32:15 33:5 34:5 35:15 36:15 37:15 38:15
-0.03125 1:1.8 2:1 3:15 4:15 5:15 6:15 7:15 8:15 9:15 10:15 11:15 12:15 13:15 14:15 15:15 16:15 17:15 18:15 19:15 20:15 21:15 22:15 23:15 24:15 25:15 26:15 27:15 28:15 29:15 30:15 31:15 32:15 33:5 34:5 35:15 36:15 37:15 38:15
-0.03125 1:2.2 2:0 3:15 4:15 5:15 6:15 7:15 8:15 9:15 10:15 11:15 12:15 13:15 14:15 15:15 16:15 17:15 18:15 19:15 20:15 21:15 22:15 23:15 24:15 25:15 26:15 27:15 28:15 29:15 30:15 31:15 32:15 33:5 34:5 35:15 36:15 37:15 38:15
-0.03125 1:0 2:3 3:15 4:15 5:15 6:15 7:15 8:15 9:15 10:15 11:15 12:15 13:15 14:15 15:15 16:15 17:15 18:15 19:5 20:15 21:15 22:15 23:15 24:15 25:15 26:15 27:15 28:15 29:15 30:15 31:15 32:15 33:15 34:4 35:15 36:15 37:15 38:15
-0.03125 1:0 2:4 3:15 4:15 5:15 6:15 7:15 8:15 9:6 10:15 11:15 12:15 13:15 14:15 15:15 16:15 17:15 18:15 19:8 20:15 21:15 22:15 23:15 24:15 25:15 26:15 27:15 28:15 29:15 30:15 31:15 32:15 33:15 34:6 35:15 36:15 37:15 38:15
-0.03125 1:0 2:5 3:15 4:15 5:15 6:15 7:15 8:15 9:6 10:15 11:15 12:15 13:15 14:15 15:15 16:15 17:15 18:15 19:8 20:15 21:15 22:15 23:15 24:15 25:15 26:15 27:15 28:15 29:15 30:15 31:15 32:15 33:15 34:6 35:15 36:15 37:15 38:15
-0.03125 1:0 2:2 3:15 4:15 5:15 6:15 7:15 8:15 9:6 10:15 11:15 12:15 13:15 14:15 15:15 16:15 17:15 18:15 19:8 20:15 21:15 22:15 23:15 24:15 25:15 26:15 27:15 28:15 29:15 30:15 31:15 32:15 33:15 34:6 35:15 36:15 37:15 38:15
-0.03125 1:0 2:1 3:15 4:15 5:15 6:15 7:15 8:15 9:6 10:15 11:15 12:15 13:15 14:15 15:15 16:15 17:15 18:15 19:8 20:15 21:15 22:15 23:15 24:15 25:15 26:15 27:15 28:15 29:15 30:15 31:15 32:15 33:15 34:6 35:15 36:15 37:15 38:15
-0.03125 1:0 2:3 3:15 4:15 5:15 6:15 7:15 8:15 9:6 10:15 11:15 12:15 13:15 14:15 15:15 16:15 17:15 18:15 19:8 20:15 21:15 22:15 23:15 24:15 25:15 26:15 27:15 28:15 29:15 30:15 31:15 32:15 33:15 34:6 35:15 36:15 37:15 38:15
-0.03125 1:0 2:8 3:15 4:15 5:15 6:15 7:15 8:15 9:6 10:15 11:15 12:15 13:15 14:15 15:15 16:15 17:15 18:15 19:8 20:15 21:15 22:15 23:15 24:15 25:15 26:15 27:15 28:15 29:15 30:15 31:15 32:15 33:15 34:6 35:15 36:15 37:15 38:15
-0.03125 1:0 2:6 3:15 4:15 5:15 6:15 7:15 8:15 9:6 10:15 11:15 12:15 13:15 14:15 15:15 16:15 17:15 18:15 19:8 20:15 21:15 22:15 23:15 24:15 25:15 26:15 27:15 28:15 29:15 30:15 31:15 32:15 33:15 34:6 35:15 36:15 37:15 38:15
-0.03125 1:0 2:3 3:15 4:15 5:15 6:15 7:15 8:15 9:6 10:15 11:15 12:15 13:15 14:15 15:15 16:15 17:15 18:15 19:15 20:15 21:15 22:15 23:15 24:15 25:15 26:15 27:15 28:15 29:15 30:15 31:15 32:15 33:7 34:6 35:15 36:15 37:15 38:15
-0.03125 1:0.526315789473684 2:1 3:15 4:15 5:15 6:15 7:15 8:15 9:6 10:15 11:15 12:15 13:15 14:15 15:15 16:15 17:15 18:15 19:15 20:15 21:15 22:15 23:15 24:15 25:15 26:15 27:15 28:15 29:15 30:15 31:15 32:15 33:7 34:6 35:15 36:15 37:15 38:15
-0.03125 1:0 2:0 3:15 4:15 5:15 6:15 7:15 8:15 9:6 10:15 11:15 12:15 13:15 14:15 15:15 16:15 17:15 18:15 19:15 20:15 21:15 22:15 23:15 24:15 25:15 26:15 27:15 28:15 29:15 30:15 31:15 32:15 33:7 34:6 35:15 36:15 37:15 38:15
-0.03125 1:3 2:4 3:15 4:15 5:15 6:15 7:15 8:15 9:15 10:15 11:15 12:15 13:15 14:15 15:15 16:15 17:15 18:15 19:6 20:15 21:15 22:15 23:15 24:15 25:15 26:15 27:15 28:15 29:15 30:15 31:15 32:15 33:15 34:4 35:15 36:15 37:15 38:15
-0.03125 1:0.8 2:1 3:15 4:15 5:15 6:15 7:15 8:15 9:15 10:15 11:15 12:15 13:15 14:15 15:15 16:15 17:15 18:15 19:6 20:15 21:15 22:15 23:15 24:15 25:15 26:15 27:15 28:15 29:15 30:15 31:15 32:15 33:15 34:4 35:15 36:15 37:15 38:15
-0.03125 1:0.2 2:2 3:15 4:15 5:15 6:15 7:15 8:15 9:15 10:15 11:15 12:15 13:15 14:15 15:15 16:15 17:15 18:15 19:6 20:15 21:15 22:15 23:15 24:15 25:15 26:15 27:15 28:15 29:15 30:15 31:15 32:15 33:15 34:4 35:15 36:15 37:15 38:15
-0.03125 1:0 2:4 3:15 4:15 5:15 6:15 7:15 8:15 9:15 10:15 11:15 12:15 13:15 14:15 15:15 16:15 17:15 18:15 19:6 20:15 21:15 22:15 23:15 24:15 25:15 26:15 27:15 28:15 29:15 30:15 31:15 32:15 33:6 34:4 35:15 36:15 37:15 38:15
-0.03125 1:0 2:5 3:15 4:15 5:15 6:15 7:15 8:15 9:15 10:15 11:15 12:15 13:15 14:15 15:15 16:15 17:15 18:15 19:6 20:15 21:15 22:15 23:15 24:15 25:15 26:15 27:15 28:15 29:15 30:15 31:15 32:15 33:6 34:4 35:15 36:15 37:15 38:15
-0.03125 1:0 2:0 3:15 4:15 5:15 6:15 7:15 8:15 9:15 10:15 11:15 12:15 13:15 14:15 15:15 16:15 17:15 18:15 19:6 20:15 21:15 22:15 23:15 24:15 25:15 26:15 27:15 28:15 29:15 30:15 31:15 32:15 33:15 34:4 35:15 36:15 37:15 38:15
-0.03125 1:0 2:2 3:15 4:15 5:15 6:15 7:15 8:15 9:15 10:15 11:15 12:15 13:15 14:15 15:15 16:15 17:15 18:15 19:6 20:15 21:15 22:15 23:15 24:15 25:15 26:15 27:15 28:15 29:15 30:15 31:15 32:15 33:15 34:4 35:15 36:15 37:15 38:15
-0.03125 1:0 2:1 3:15 4:15 5:15 6:15 7:15 8:15 9:15 10:15 11:15 12:15 13:15 14:15 15:15 16:15 17:15 18:15 19:6 20:15 21:15 22:15 23:15 24:15 25:15 26:15 27:15 28:15 29:15 30:15 31:15 32:15 33:15 34:4 35:15 36:15 37:15 38:15
-0.03125 1:0.178571428571429 2:2 3:15 4:15 5:15 6:15 7:15 8:15 9:15 10:15 11:15 12:15 13:15 14:15 15:15 16:15 17:15 18:15 19:6 20:15 21:15 22:15 23:15 24:15 25:15 26:15 27:15 28:15 29:15 30:15 31:15 32:15 33:15 34:4 35:15 36:15 37:15 38:15
-0.03125 1:5.17857142857143 2:5 3:15 4:15 5:15 6:15 7:15 8:15 9:15 10:15 11:15 12:15 13:15 14:15 15:15 16:15 17:15 18:15 19:6 20:15 21:15 22:15 23:15 24:15 25:15 26:15 27:15 28:15 29:15 30:15 31:15 32:15 33:15 34:4 35:15 36:15 37:15 38:15
-0.03125 1:0.25 2:3 3:15 4:15 5:15 6:15 7:15 8:15 9:15 10:15 11:15 12:15 13:15 14:15 15:15 16:15 17:15 18:6 19:15 20:15 21:15 22:15 23:15 24:15 25:15 26:15 27:15 28:15 29:15 30:15 31:15 32:15 33:15 34:5 35:15 36:15 37:15 38:15
-0.03125 1:0.5 2:2 3:15 4:15 5:15 6:15 7:15 8:15 9:15 10:15 11:15 12:15 13:15 14:15 15:15 16:15 17:15 18:15 19:15 20:15 21:15 22:15 23:15 24:15 25:15 26:15 27:15 28:15 29:15 30:15 31:15 32:15 33:6 34:4 35:15 36:15 37:15 38:15
-0.03125 1:0 2:7 3:15 4:15 5:15 6:15 7:15 8:15 9:15 10:15 11:15 12:15 13:15 14:15 15:15 16:15 17:15 18:15 19:15 20:15 21:15 22:15 23:15 24:15 25:15 26:15 27:15 28:15 29:15 30:15 31:15 32:15 33:6 34:4 35:15 36:15 37:15 38:15
-0.03125 1:0.5 2:4 3:15 4:15 5:15 6:15 7:15 8:15 9:15 10:15 11:15 12:15 13:15 14:15 15:15 16:15 17:15 18:15 19:15 20:15 21:15 22:15 23:15 24:15 25:15 26:15 27:15 28:15 29:15 30:15 31:15 32:15 33:6 34:4 35:15 36:15 37:15 38:15
-0.03125 1:0 2:0 3:15 4:15 5:15 6:15 7:15 8:15 9:15 10:15 11:15 12:15 13:15 14:15 15:15 16:15 17:15 18:6 19:6 20:15 21:15 22:15 23:15 24:15 25:15 26:15 27:15 28:15 29:15 30:15 31:15 32:15 33:15 34:15 35:15 36:15 37:15 38:15
-0.03125 1:0 2:3 3:15 4:15 5:15 6:15 7:15 8:15 9:15 10:15 11:15 12:15 13:15 14:15 15:15 16:15 17:15 18:5 19:5 20:15 21:15 22:15 23:15 24:15 25:15 26:15 27:15 28:15 29:15 30:15 31:15 32:15 33:15 34:15 35:15 36:15 37:15 38:15
-0.03125 1:0 2:2 3:15 4:15 5:15 6:15 7:15 8:15 9:15 10:15 11:15 12:15 13:15 14:15 15:15 16:15 17:15 18:5 19:5 20:15 21:15 22:15 23:15 24:15 25:15 26:15 27:15 28:15 29:15 30:15 31:15 32:15 33:15 34:15 35:15 36:15 37:15 38:15
-0.03125 1:0.333333333333333 2:2 3:15 4:15 5:15 6:15 7:15 8:15 9:15 10:15 11:15 12:15 13:15 14:15 15:15 16:15 17:15 18:2 19:5 20:15 21:15 22:15 23:15 24:15 25:15 26:15 27:15 28:15 29:15 30:15 31:15 32:15 33:15 34:4 35:15 36:15 37:15 38:15
-0.03125 1:0 2:3 3:15 4:15 5:15 6:15 7:15 8:15 9:15 10:15 11:15 12:15 13:15 14:15 15:15 16:15 17:15 18:2 19:5 20:15 21:15 22:15 23:15 24:15 25:15 26:15 27:15 28:15 29:15 30:15 31:15 32:15 33:15 34:4 35:15 36:15 37:15 38:15
-0.03125 1:0 2:0 3:15 4:15 5:15 6:15 7:15 8:15 9:15 10:15 11:15 12:15 13:15 14:15 15:15 16:15 17:15 18:15 19:15 20:15 21:15 22:15 23:15 24:15 25:15 26:15 27:15 28:15 29:15 30:15 31:15 32:15 33:3 34:15 35:15 36:15 37:15 38:15
-0.03125 1:0.666666666666667 2:1 3:15 4:15 5:15 6:15 7:15 8:15 9:15 10:15 11:15 12:15 13:15 14:15 15:15 16:15 17:15 18:15 19:15 20:15 21:15 22:15 23:15 24:15 25:15 26:15 27:15 28:15 29:15 30:15 31:15 32:15 33:4 34:15 35:15 36:15 37:15 38:15
-0.03125 1:0 2:0 3:15 4:15 5:15 6:15 7:15 8:15 9:15 10:15 11:15 12:15 13:15 14:15 15:15 16:15 17:15 18:15 19:15 20:15 21:15 22:15 23:15 24:15 25:15 26:15 27:15 28:15 29:15 30:15 31:15 32:15 33:4 34:15 35:15 36:15 37:15 38:15
-0.03125 1:0.666666666666667 2:3 3:15 4:15 5:15 6:15 7:15 8:15 9:15 10:15 11:15 12:15 13:15 14:15 15:15 16:15 17:15 18:15 19:15 20:15 21:15 22:15 23:15 24:15 25:15 26:15 27:15 28:15 29:15 30:15 31:15 32:15 33:4 34:15 35:15 36:15 37:15 38:15
-0.03125 1:0 2:1 3:15 4:15 5:15 6:15 7:15 8:15 9:15 10:15 11:15 12:15 13:15 14:15 15:15 16:15 17:15 18:15 19:15 20:15 21:15 22:15 23:15 24:15 25:15 26:15 27:15 28:15 29:15 30:15 31:15 32:15 33:5 34:3 35:15 36:15 37:15 38:15
-0.03125 1:0 2:2 3:15 4:15 5:15 6:15 7:15 8:15 9:15 10:15 11:15 12:15 13:15 14:15 15:15 16:15 17:15 18:15 19:15 20:15 21:15 22:15 23:15 24:15 25:15 26:15 27:15 28:15 29:15 30:15 31:15 32:15 33:5 34:3 35:15 36:15 37:15 38:15
-0.03125 1:0 2:4 3:15 4:15 5:15 6:15 7:15 8:15 9:15 10:15 11:15 12:15 13:15 14:15 15:15 16:15 17:15 18:15 19:15 20:15 21:15 22:15 23:15 24:15 25:15 26:15 27:15 28:15 29:15 30:15 31:15 32:15 33:5 34:3 35:15 36:15 37:15 38:15
-0.03125 1:0 2:4 3:15 4:15 5:15 6:15 7:15 8:15 9:15 10:15 11:15 12:15 13:15 14:15 15:15 16:15 17:15 18:15 19:7 20:15 21:15 22:15 23:15 24:15 25:15 26:15 27:15 28:15 29:15 30:6 31:15 32:15 33:7 34:15 35:15 36:15 37:15 38:15
-0.03125 1:0 2:1 3:15 4:15 5:15 6:15 7:15 8:15 9:15 10:15 11:15 12:15 13:15 14:15 15:15 16:15 17:15 18:15 19:7 20:15 21:15 22:15 23:15 24:15 25:15 26:15 27:15 28:15 29:15 30:6 31:15 32:15 33:7 34:15 35:15 36:15 37:15 38:15
-0.03125 1:0 2:3 3:15 4:15 5:15 6:15 7:15 8:15 9:15 10:15 11:15 12:15 13:15 14:15 15:15 16:15 17:15 18:15 19:7 20:15 21:15 22:15 23:15 24:15 25:15 26:15 27:15 28:15 29:15 30:6 31:15 32:15 33:7 34:15 35:15 36:15 37:15 38:15
-0.03125 1:0 2:2 3:15 4:15 5:15 6:15 7:15 8:15 9:15 10:15 11:15 12:15 13:15 14:15 15:15 16:15 17:15 18:15 19:7 20:15 21:15 22:15 23:15 24:15 25:15 26:15 27:15 28:15 29:15 30:6 31:15 32:15 33:7 34:15 35:15 36:15 37:15 38:15
-0.03125 1:0 2:5 3:15 4:15 5:15 6:15 7:15 8:15 9:15 10:15 11:15 12:15 13:15 14:15 15:15 16:15 17:15 18:15 19:15 20:15 21:15 22:15 23:15 24:15 25:15 26:15 27:15 28:15 29:15 30:15 31:15 32:15 33:6 34:15 35:15 36:15 37:15 38:15
-0.03125 1:0 2:4 3:15 4:15 5:15 6:15 7:15 8:15 9:15 10:15 11:15 12:15 13:15 14:15 15:15 16:15 17:15 18:15 19:15 20:15 21:15 22:15 23:15 24:15 25:15 26:15 27:15 28:15 29:15 30:15 31:15 32:15 33:6 34:15 35:15 36:15 37:15 38:15
-0.03125 1:0.25 2:2 3:15 4:15 5:15 6:15 7:15 8:15 9:15 10:15 11:15 12:15 13:15 14:15 15:15 16:15 17:15 18:15 19:5 20:15 21:15 22:15 23:15 24:15 25:15 26:15 27:15 28:15 29:15 30:15 31:15 32:15 33:15 34:3 35:15 36:15 37:15 38:15
-0.03125 1:0 2:3 3:15 4:15 5:15 6:15 7:15 8:15 9:15 10:15 11:15 12:15 13:15 14:15 15:15 16:15 17:15 18:15 19:5 20:15 21:15 22:15 23:15 24:15 25:15 26:15 27:15 28:15 29:15 30:15 31:15 32:15 33:15 34:3 35:15 36:15 37:15 38:15
-0.03125 1:0 2:2 3:15 4:15 5:15 6:15 7:15 8:15 9:15 10:15 11:15 12:15 13:15 14:15 15:15 16:15 17:15 18:15 19:5 20:15 21:15 22:15 23:15 24:15 25:15 26:15 27:15 28:15 29:15 30:15 31:15 32:15 33:15 34:3 35:15 36:15 37:15 38:15
-0.03125 1:0 2:2 3:15 4:15 5:15 6:15 7:15 8:15 9:15 10:15 11:15 12:15 13:15 14:15 15:15 16:15 17:15 18:6 19:11 20:15 21:15 22:15 23:15 24:15 25:15 26:15 27:15 28:15 29:15 30:3 31:15 32:15 33:15 34:6 35:15 36:15 37:15 38:15
-0.03125 1:0 2:3 3:15 4:15 5:15 6:15 7:15 8:15 9:15 10:15 11:15 12:15 13:15 14:15 15:15 16:15 17:15 18:6 19:11 20:15 21:15 22:15 23:15 24:15 25:15 26:15 27:15 28:15 29:15 30:3 31:15 32:15 33:15 34:6 35:15 36:15 37:15 38:15
-0.03125 1:0 2:0 3:15 4:15 5:15 6:15 7:15 8:15 9:15 10:15 11:15 12:15 13:15 14:15 15:15 16:15 17:15 18:6 19:11 20:15 21:15 22:15 23:15 24:15 25:15 26:15 27:15 28:15 29:15 30:3 31:15 32:15 33:15 34:6 35:15 36:15 37:15 38:15
-0.03125 1:0 2:4 3:15 4:15 5:15 6:15 7:15 8:15 9:15 10:15 11:15 12:15 13:15 14:15 15:15 16:15 17:15 18:6 19:11 20:15 21:15 22:15 23:15 24:15 25:15 26:15 27:15 28:15 29:15 30:15 31:15 32:15 33:15 34:6 35:15 36:15 37:15 38:15
-0.03125 1:0 2:3 3:15 4:15 5:15 6:15 7:15 8:15 9:15 10:15 11:15 12:15 13:15 14:15 15:15 16:15 17:15 18:6 19:11 20:15 21:15 22:15 23:15 24:15 25:15 26:15 27:15 28:15 29:15 30:15 31:15 32:15 33:15 34:6 35:15 36:15 37:15 38:15
